#pragma once
#include <cstdarg>
namespace Eloquent {
    namespace ML {
        namespace Port {
            class RandomForest {
                public:
                    /**
                    * Predict class for features vector
                    */
                    int predict(float *x) {
                        uint8_t votes[3] = { 0 };
                        // tree #1
                        if (x[61] <= -1.7100000381469727) {
                            if (x[134] <= -2.524999976158142) {
                                if (x[4] <= 0.050000011920928955) {
                                    if (x[12] <= -7.014999866485596) {
                                        votes[0] += 1;
                                    }

                                    else {
                                        votes[2] += 1;
                                    }
                                }

                                else {
                                    if (x[87] <= 8.725000143051147) {
                                        votes[1] += 1;
                                    }

                                    else {
                                        votes[0] += 1;
                                    }
                                }
                            }

                            else {
                                votes[1] += 1;
                            }
                        }

                        else {
                            if (x[46] <= -5.305000066757202) {
                                votes[1] += 1;
                            }

                            else {
                                if (x[22] <= -23.605000495910645) {
                                    votes[1] += 1;
                                }

                                else {
                                    if (x[55] <= 5.440000057220459) {
                                        if (x[133] <= -9.019999742507935) {
                                            votes[2] += 1;
                                        }

                                        else {
                                            if (x[94] <= -3.1950000524520874) {
                                                votes[2] += 1;
                                            }

                                            else {
                                                votes[0] += 1;
                                            }
                                        }
                                    }

                                    else {
                                        votes[2] += 1;
                                    }
                                }
                            }
                        }

                        // tree #2
                        if (x[64] <= -0.06500000134110451) {
                            if (x[114] <= 5.764999866485596) {
                                if (x[84] <= 8.904999732971191) {
                                    if (x[63] <= 9.40500020980835) {
                                        if (x[97] <= -8.614999771118164) {
                                            if (x[132] <= 2.379999965429306) {
                                                votes[2] += 1;
                                            }

                                            else {
                                                votes[1] += 1;
                                            }
                                        }

                                        else {
                                            votes[1] += 1;
                                        }
                                    }

                                    else {
                                        votes[2] += 1;
                                    }
                                }

                                else {
                                    if (x[36] <= 10.295000076293945) {
                                        votes[2] += 1;
                                    }

                                    else {
                                        if (x[118] <= -5.015000104904175) {
                                            votes[1] += 1;
                                        }

                                        else {
                                            votes[0] += 1;
                                        }
                                    }
                                }
                            }

                            else {
                                if (x[37] <= 0.13499999046325684) {
                                    votes[2] += 1;
                                }

                                else {
                                    votes[0] += 1;
                                }
                            }
                        }

                        else {
                            if (x[73] <= -1.0000000298023224) {
                                if (x[38] <= -15.795000076293945) {
                                    votes[1] += 1;
                                }

                                else {
                                    if (x[34] <= -1.755000039935112) {
                                        votes[2] += 1;
                                    }

                                    else {
                                        votes[0] += 1;
                                    }
                                }
                            }

                            else {
                                if (x[131] <= -12.850000381469727) {
                                    votes[2] += 1;
                                }

                                else {
                                    votes[0] += 1;
                                }
                            }
                        }

                        // tree #3
                        if (x[59] <= -1.4449999928474426) {
                            if (x[85] <= -0.625) {
                                if (x[131] <= -3.84499990940094) {
                                    if (x[7] <= 0.9000000059604645) {
                                        if (x[108] <= 11.485000133514404) {
                                            votes[2] += 1;
                                        }

                                        else {
                                            if (x[102] <= 12.160000324249268) {
                                                votes[0] += 1;
                                            }

                                            else {
                                                votes[2] += 1;
                                            }
                                        }
                                    }

                                    else {
                                        if (x[85] <= -6.09499979019165) {
                                            votes[1] += 1;
                                        }

                                        else {
                                            votes[0] += 1;
                                        }
                                    }
                                }

                                else {
                                    if (x[72] <= 5.3999998569488525) {
                                        if (x[27] <= -6.009999990463257) {
                                            votes[0] += 1;
                                        }

                                        else {
                                            votes[1] += 1;
                                        }
                                    }

                                    else {
                                        votes[2] += 1;
                                    }
                                }
                            }

                            else {
                                if (x[106] <= -5.6499998569488525) {
                                    if (x[126] <= 4.550000071525574) {
                                        votes[1] += 1;
                                    }

                                    else {
                                        votes[2] += 1;
                                    }
                                }

                                else {
                                    if (x[64] <= -1.60999995470047) {
                                        votes[1] += 1;
                                    }

                                    else {
                                        if (x[115] <= -4.9649999141693115) {
                                            votes[2] += 1;
                                        }

                                        else {
                                            if (x[16] <= 32.029998779296875) {
                                                votes[0] += 1;
                                            }

                                            else {
                                                votes[1] += 1;
                                            }
                                        }
                                    }
                                }
                            }
                        }

                        else {
                            if (x[105] <= -3.394999861717224) {
                                if (x[132] <= 20.84500026702881) {
                                    votes[2] += 1;
                                }

                                else {
                                    votes[0] += 1;
                                }
                            }

                            else {
                                votes[1] += 1;
                            }
                        }

                        // tree #4
                        if (x[106] <= -2.8600000143051147) {
                            if (x[134] <= -4.3349997997283936) {
                                if (x[58] <= -6.755000114440918) {
                                    if (x[11] <= -6.7900002002716064) {
                                        votes[1] += 1;
                                    }

                                    else {
                                        votes[2] += 1;
                                    }
                                }

                                else {
                                    if (x[95] <= -1.449999988079071) {
                                        votes[2] += 1;
                                    }

                                    else {
                                        votes[0] += 1;
                                    }
                                }
                            }

                            else {
                                if (x[118] <= -2.7699999809265137) {
                                    votes[1] += 1;
                                }

                                else {
                                    votes[2] += 1;
                                }
                            }
                        }

                        else {
                            if (x[52] <= -2.100000023841858) {
                                if (x[4] <= 1.540000081062317) {
                                    if (x[55] <= 0.24500000476837158) {
                                        votes[2] += 1;
                                    }

                                    else {
                                        votes[1] += 1;
                                    }
                                }

                                else {
                                    if (x[83] <= -4.024999976158142) {
                                        votes[0] += 1;
                                    }

                                    else {
                                        votes[1] += 1;
                                    }
                                }
                            }

                            else {
                                if (x[21] <= 18.300000190734863) {
                                    if (x[116] <= -12.180000305175781) {
                                        votes[2] += 1;
                                    }

                                    else {
                                        if (x[85] <= 3.5299999713897705) {
                                            if (x[29] <= 4.884999990463257) {
                                                votes[0] += 1;
                                            }

                                            else {
                                                votes[1] += 1;
                                            }
                                        }

                                        else {
                                            if (x[127] <= -2.174999952316284) {
                                                votes[2] += 1;
                                            }

                                            else {
                                                votes[0] += 1;
                                            }
                                        }
                                    }
                                }

                                else {
                                    if (x[60] <= 8.575000047683716) {
                                        votes[1] += 1;
                                    }

                                    else {
                                        votes[0] += 1;
                                    }
                                }
                            }
                        }

                        // tree #5
                        if (x[43] <= -2.009999990463257) {
                            if (x[116] <= -3.25) {
                                if (x[36] <= 19.425000190734863) {
                                    if (x[121] <= -7.680000066757202) {
                                        votes[1] += 1;
                                    }

                                    else {
                                        votes[2] += 1;
                                    }
                                }

                                else {
                                    votes[0] += 1;
                                }
                            }

                            else {
                                if (x[40] <= -2.149999976158142) {
                                    votes[1] += 1;
                                }

                                else {
                                    if (x[0] <= 10.71999979019165) {
                                        votes[1] += 1;
                                    }

                                    else {
                                        votes[2] += 1;
                                    }
                                }
                            }
                        }

                        else {
                            if (x[64] <= -2.774999976158142) {
                                if (x[93] <= 6.120000123977661) {
                                    votes[1] += 1;
                                }

                                else {
                                    votes[2] += 1;
                                }
                            }

                            else {
                                if (x[82] <= -1.590000033378601) {
                                    votes[2] += 1;
                                }

                                else {
                                    if (x[106] <= -9.119999885559082) {
                                        votes[2] += 1;
                                    }

                                    else {
                                        if (x[20] <= 39.71999931335449) {
                                            if (x[18] <= 35.420000076293945) {
                                                votes[0] += 1;
                                            }

                                            else {
                                                if (x[53] <= -5.5) {
                                                    votes[1] += 1;
                                                }

                                                else {
                                                    votes[0] += 1;
                                                }
                                            }
                                        }

                                        else {
                                            votes[1] += 1;
                                        }
                                    }
                                }
                            }
                        }

                        // tree #6
                        if (x[85] <= -0.7449999749660492) {
                            if (x[90] <= 5.789999961853027) {
                                if (x[129] <= 6.815000295639038) {
                                    if (x[120] <= -3.8149999380111694) {
                                        votes[2] += 1;
                                    }

                                    else {
                                        votes[1] += 1;
                                    }
                                }

                                else {
                                    votes[2] += 1;
                                }
                            }

                            else {
                                if (x[12] <= -7.2799999713897705) {
                                    votes[0] += 1;
                                }

                                else {
                                    votes[2] += 1;
                                }
                            }
                        }

                        else {
                            if (x[34] <= -3.465000033378601) {
                                if (x[24] <= 11.414999961853027) {
                                    votes[2] += 1;
                                }

                                else {
                                    votes[1] += 1;
                                }
                            }

                            else {
                                if (x[32] <= 9.210000038146973) {
                                    if (x[55] <= 5.704999923706055) {
                                        votes[0] += 1;
                                    }

                                    else {
                                        votes[2] += 1;
                                    }
                                }

                                else {
                                    votes[1] += 1;
                                }
                            }
                        }

                        // tree #7
                        if (x[114] <= 5.664999961853027) {
                            if (x[72] <= 8.724999904632568) {
                                if (x[114] <= -3.994999885559082) {
                                    if (x[17] <= -10.414999961853027) {
                                        votes[2] += 1;
                                    }

                                    else {
                                        votes[0] += 1;
                                    }
                                }

                                else {
                                    if (x[91] <= 5.21999990940094) {
                                        if (x[83] <= -7.485000133514404) {
                                            votes[2] += 1;
                                        }

                                        else {
                                            votes[1] += 1;
                                        }
                                    }

                                    else {
                                        votes[2] += 1;
                                    }
                                }
                            }

                            else {
                                if (x[48] <= 10.224999904632568) {
                                    if (x[28] <= 1.899999886751175) {
                                        votes[2] += 1;
                                    }

                                    else {
                                        votes[0] += 1;
                                    }
                                }

                                else {
                                    votes[0] += 1;
                                }
                            }
                        }

                        else {
                            if (x[127] <= -2.1050000190734863) {
                                votes[2] += 1;
                            }

                            else {
                                if (x[120] <= 15.815000057220459) {
                                    votes[0] += 1;
                                }

                                else {
                                    votes[2] += 1;
                                }
                            }
                        }

                        // tree #8
                        if (x[84] <= 5.610000133514404) {
                            if (x[107] <= -5.869999885559082) {
                                if (x[20] <= -9.184999942779541) {
                                    votes[2] += 1;
                                }

                                else {
                                    if (x[85] <= -5.0450000166893005) {
                                        if (x[15] <= 10.59500041604042) {
                                            votes[2] += 1;
                                        }

                                        else {
                                            votes[1] += 1;
                                        }
                                    }

                                    else {
                                        votes[0] += 1;
                                    }
                                }
                            }

                            else {
                                if (x[132] <= 7.144999980926514) {
                                    if (x[127] <= 4.729999899864197) {
                                        if (x[102] <= -4.099999904632568) {
                                            votes[0] += 1;
                                        }

                                        else {
                                            votes[1] += 1;
                                        }
                                    }

                                    else {
                                        votes[0] += 1;
                                    }
                                }

                                else {
                                    votes[2] += 1;
                                }
                            }
                        }

                        else {
                            if (x[47] <= -13.079999923706055) {
                                if (x[57] <= 11.605000019073486) {
                                    votes[2] += 1;
                                }

                                else {
                                    if (x[23] <= -12.96500015258789) {
                                        votes[2] += 1;
                                    }

                                    else {
                                        votes[0] += 1;
                                    }
                                }
                            }

                            else {
                                if (x[79] <= -1.9399999976158142) {
                                    if (x[110] <= -4.670000076293945) {
                                        votes[2] += 1;
                                    }

                                    else {
                                        if (x[31] <= 3.2700001001358032) {
                                            votes[1] += 1;
                                        }

                                        else {
                                            votes[0] += 1;
                                        }
                                    }
                                }

                                else {
                                    if (x[115] <= -4.259999990463257) {
                                        if (x[77] <= 11.0600004196167) {
                                            votes[2] += 1;
                                        }

                                        else {
                                            votes[1] += 1;
                                        }
                                    }

                                    else {
                                        if (x[8] <= 4.035000026226044) {
                                            votes[0] += 1;
                                        }

                                        else {
                                            votes[1] += 1;
                                        }
                                    }
                                }
                            }
                        }

                        // tree #9
                        if (x[73] <= -1.6700000166893005) {
                            if (x[114] <= 5.400000095367432) {
                                if (x[120] <= -3.3600000143051147) {
                                    votes[2] += 1;
                                }

                                else {
                                    if (x[134] <= -7.779999732971191) {
                                        votes[2] += 1;
                                    }

                                    else {
                                        votes[1] += 1;
                                    }
                                }
                            }

                            else {
                                if (x[15] <= 2.5450000762939453) {
                                    votes[0] += 1;
                                }

                                else {
                                    if (x[70] <= -0.5300000086426735) {
                                        votes[2] += 1;
                                    }

                                    else {
                                        votes[0] += 1;
                                    }
                                }
                            }
                        }

                        else {
                            if (x[35] <= -2.4000000953674316) {
                                if (x[10] <= -20.415000438690186) {
                                    votes[1] += 1;
                                }

                                else {
                                    votes[0] += 1;
                                }
                            }

                            else {
                                if (x[5] <= -2.0100000500679016) {
                                    votes[2] += 1;
                                }

                                else {
                                    votes[1] += 1;
                                }
                            }
                        }

                        // tree #10
                        if (x[103] <= -0.45499999821186066) {
                            if (x[26] <= 2.0299999713897705) {
                                if (x[44] <= -10.759999752044678) {
                                    if (x[39] <= 10.579999923706055) {
                                        votes[2] += 1;
                                    }

                                    else {
                                        votes[0] += 1;
                                    }
                                }

                                else {
                                    if (x[120] <= 5.534999847412109) {
                                        if (x[44] <= -4.545000076293945) {
                                            if (x[64] <= -5.204999923706055) {
                                                votes[1] += 1;
                                            }

                                            else {
                                                votes[0] += 1;
                                            }
                                        }

                                        else {
                                            votes[1] += 1;
                                        }
                                    }

                                    else {
                                        votes[2] += 1;
                                    }
                                }
                            }

                            else {
                                votes[1] += 1;
                            }
                        }

                        else {
                            if (x[78] <= 3.4999999403953552) {
                                if (x[22] <= 10.944999933242798) {
                                    if (x[13] <= -0.6999999955296516) {
                                        votes[2] += 1;
                                    }

                                    else {
                                        if (x[19] <= 5.584999918937683) {
                                            votes[0] += 1;
                                        }

                                        else {
                                            votes[1] += 1;
                                        }
                                    }
                                }

                                else {
                                    votes[1] += 1;
                                }
                            }

                            else {
                                if (x[28] <= -6.379999876022339) {
                                    votes[2] += 1;
                                }

                                else {
                                    votes[0] += 1;
                                }
                            }
                        }

                        // tree #11
                        if (x[43] <= -2.175000011920929) {
                            if (x[74] <= -7.445000171661377) {
                                votes[2] += 1;
                            }

                            else {
                                if (x[116] <= -3.2549999952316284) {
                                    if (x[86] <= -6.125) {
                                        if (x[23] <= -6.960000038146973) {
                                            votes[0] += 1;
                                        }

                                        else {
                                            votes[1] += 1;
                                        }
                                    }

                                    else {
                                        votes[2] += 1;
                                    }
                                }

                                else {
                                    votes[1] += 1;
                                }
                            }
                        }

                        else {
                            if (x[115] <= -3.880000114440918) {
                                if (x[48] <= 19.2599995136261) {
                                    votes[2] += 1;
                                }

                                else {
                                    votes[1] += 1;
                                }
                            }

                            else {
                                if (x[57] <= 3.480000078678131) {
                                    if (x[131] <= -1.8899999856948853) {
                                        votes[0] += 1;
                                    }

                                    else {
                                        votes[1] += 1;
                                    }
                                }

                                else {
                                    if (x[65] <= -13.170000076293945) {
                                        votes[2] += 1;
                                    }

                                    else {
                                        votes[0] += 1;
                                    }
                                }
                            }
                        }

                        // tree #12
                        if (x[73] <= -1.5199999809265137) {
                            if (x[107] <= -5.869999885559082) {
                                if (x[40] <= -2.2649999856948853) {
                                    votes[2] += 1;
                                }

                                else {
                                    if (x[78] <= 9.87000036239624) {
                                        votes[2] += 1;
                                    }

                                    else {
                                        votes[0] += 1;
                                    }
                                }
                            }

                            else {
                                if (x[105] <= -2.5399999618530273) {
                                    votes[2] += 1;
                                }

                                else {
                                    if (x[119] <= -5.859999895095825) {
                                        votes[2] += 1;
                                    }

                                    else {
                                        if (x[102] <= 6.204999923706055) {
                                            votes[1] += 1;
                                        }

                                        else {
                                            if (x[130] <= -2.4649999141693115) {
                                                votes[2] += 1;
                                            }

                                            else {
                                                votes[0] += 1;
                                            }
                                        }
                                    }
                                }
                            }
                        }

                        else {
                            if (x[27] <= 14.014999866485596) {
                                if (x[114] <= 13.775000095367432) {
                                    if (x[11] <= -21.40999984741211) {
                                        votes[1] += 1;
                                    }

                                    else {
                                        if (x[16] <= -35.18499946594238) {
                                            votes[1] += 1;
                                        }

                                        else {
                                            if (x[77] <= -13.775000095367432) {
                                                votes[2] += 1;
                                            }

                                            else {
                                                votes[0] += 1;
                                            }
                                        }
                                    }
                                }

                                else {
                                    votes[2] += 1;
                                }
                            }

                            else {
                                if (x[2] <= -9.929999828338623) {
                                    if (x[90] <= 19.40500020980835) {
                                        votes[0] += 1;
                                    }

                                    else {
                                        votes[2] += 1;
                                    }
                                }

                                else {
                                    votes[1] += 1;
                                }
                            }
                        }

                        // tree #13
                        if (x[103] <= 0.05999999865889549) {
                            if (x[27] <= 16.09999990463257) {
                                if (x[56] <= -2.634999990463257) {
                                    if (x[43] <= 0.4950000047683716) {
                                        if (x[96] <= -7.25) {
                                            votes[0] += 1;
                                        }

                                        else {
                                            if (x[115] <= -6.174999952316284) {
                                                votes[1] += 1;
                                            }

                                            else {
                                                if (x[48] <= 10.779999732971191) {
                                                    votes[2] += 1;
                                                }

                                                else {
                                                    if (x[108] <= 4.570000052452087) {
                                                        votes[2] += 1;
                                                    }

                                                    else {
                                                        votes[0] += 1;
                                                    }
                                                }
                                            }
                                        }
                                    }

                                    else {
                                        if (x[38] <= -8.760000228881836) {
                                            votes[2] += 1;
                                        }

                                        else {
                                            votes[0] += 1;
                                        }
                                    }
                                }

                                else {
                                    if (x[113] <= -6.504999876022339) {
                                        votes[0] += 1;
                                    }

                                    else {
                                        votes[1] += 1;
                                    }
                                }
                            }

                            else {
                                if (x[119] <= 0.3800000101327896) {
                                    votes[1] += 1;
                                }

                                else {
                                    votes[2] += 1;
                                }
                            }
                        }

                        else {
                            if (x[78] <= -0.07000000029802322) {
                                if (x[30] <= 12.539999961853027) {
                                    if (x[11] <= -10.385000228881836) {
                                        votes[1] += 1;
                                    }

                                    else {
                                        votes[0] += 1;
                                    }
                                }

                                else {
                                    votes[1] += 1;
                                }
                            }

                            else {
                                votes[0] += 1;
                            }
                        }

                        // tree #14
                        if (x[81] <= 6.630000114440918) {
                            if (x[126] <= 5.930000066757202) {
                                if (x[123] <= -4.340000033378601) {
                                    if (x[1] <= -2.8949999809265137) {
                                        votes[2] += 1;
                                    }

                                    else {
                                        votes[0] += 1;
                                    }
                                }

                                else {
                                    if (x[134] <= -5.914999961853027) {
                                        votes[2] += 1;
                                    }

                                    else {
                                        if (x[88] <= 2.6850000619888306) {
                                            votes[1] += 1;
                                        }

                                        else {
                                            votes[0] += 1;
                                        }
                                    }
                                }
                            }

                            else {
                                if (x[27] <= 9.800000190734863) {
                                    votes[2] += 1;
                                }

                                else {
                                    votes[0] += 1;
                                }
                            }
                        }

                        else {
                            if (x[91] <= -2.1850000619888306) {
                                if (x[54] <= 10.59000015258789) {
                                    votes[2] += 1;
                                }

                                else {
                                    if (x[14] <= -3.299999952316284) {
                                        if (x[50] <= -14.224999904632568) {
                                            votes[2] += 1;
                                        }

                                        else {
                                            votes[0] += 1;
                                        }
                                    }

                                    else {
                                        votes[1] += 1;
                                    }
                                }
                            }

                            else {
                                if (x[83] <= 16.664999961853027) {
                                    votes[0] += 1;
                                }

                                else {
                                    votes[2] += 1;
                                }
                            }
                        }

                        // tree #15
                        if (x[46] <= -0.9249999821186066) {
                            if (x[134] <= -3.200000047683716) {
                                if (x[58] <= -0.9000000059604645) {
                                    if (x[67] <= -8.230000019073486) {
                                        if (x[134] <= -5.705000162124634) {
                                            votes[2] += 1;
                                        }

                                        else {
                                            votes[1] += 1;
                                        }
                                    }

                                    else {
                                        votes[2] += 1;
                                    }
                                }

                                else {
                                    if (x[97] <= 1.5450000762939453) {
                                        votes[0] += 1;
                                    }

                                    else {
                                        votes[2] += 1;
                                    }
                                }
                            }

                            else {
                                if (x[26] <= -7.019999742507935) {
                                    if (x[31] <= 0.9250000715255737) {
                                        votes[2] += 1;
                                    }

                                    else {
                                        votes[0] += 1;
                                    }
                                }

                                else {
                                    votes[1] += 1;
                                }
                            }
                        }

                        else {
                            if (x[35] <= -2.3100000619888306) {
                                if (x[27] <= 23.469999313354492) {
                                    votes[0] += 1;
                                }

                                else {
                                    votes[1] += 1;
                                }
                            }

                            else {
                                if (x[71] <= -2.115000009536743) {
                                    if (x[109] <= 0.7099999710917473) {
                                        votes[2] += 1;
                                    }

                                    else {
                                        if (x[76] <= -4.619999915361404) {
                                            votes[1] += 1;
                                        }

                                        else {
                                            votes[0] += 1;
                                        }
                                    }
                                }

                                else {
                                    if (x[108] <= 6.049999952316284) {
                                        votes[1] += 1;
                                    }

                                    else {
                                        votes[0] += 1;
                                    }
                                }
                            }
                        }

                        // tree #16
                        if (x[121] <= -0.8849999904632568) {
                            if (x[111] <= 6.509999990463257) {
                                if (x[134] <= -5.914999961853027) {
                                    if (x[79] <= -3.4450000524520874) {
                                        votes[2] += 1;
                                    }

                                    else {
                                        votes[0] += 1;
                                    }
                                }

                                else {
                                    if (x[81] <= 10.124999761581421) {
                                        votes[1] += 1;
                                    }

                                    else {
                                        votes[2] += 1;
                                    }
                                }
                            }

                            else {
                                if (x[75] <= 11.509999752044678) {
                                    votes[2] += 1;
                                }

                                else {
                                    if (x[107] <= -10.425000190734863) {
                                        votes[2] += 1;
                                    }

                                    else {
                                        votes[0] += 1;
                                    }
                                }
                            }
                        }

                        else {
                            if (x[88] <= -1.1850000023841858) {
                                votes[2] += 1;
                            }

                            else {
                                if (x[37] <= -3.265000104904175) {
                                    if (x[6] <= 8.585000038146973) {
                                        if (x[127] <= -6.864999890327454) {
                                            votes[2] += 1;
                                        }

                                        else {
                                            votes[0] += 1;
                                        }
                                    }

                                    else {
                                        votes[1] += 1;
                                    }
                                }

                                else {
                                    if (x[101] <= -0.6300000250339508) {
                                        votes[0] += 1;
                                    }

                                    else {
                                        if (x[68] <= -0.8999999910593033) {
                                            votes[0] += 1;
                                        }

                                        else {
                                            votes[1] += 1;
                                        }
                                    }
                                }
                            }
                        }

                        // tree #17
                        if (x[124] <= -0.695000022649765) {
                            if (x[129] <= 4.81000018119812) {
                                if (x[134] <= -4.06000018119812) {
                                    if (x[82] <= -1.5600000023841858) {
                                        if (x[14] <= -24.429999828338623) {
                                            votes[1] += 1;
                                        }

                                        else {
                                            votes[2] += 1;
                                        }
                                    }

                                    else {
                                        votes[0] += 1;
                                    }
                                }

                                else {
                                    if (x[90] <= 7.315000057220459) {
                                        votes[1] += 1;
                                    }

                                    else {
                                        votes[2] += 1;
                                    }
                                }
                            }

                            else {
                                if (x[34] <= -0.5400000065565109) {
                                    if (x[87] <= 10.509999752044678) {
                                        votes[2] += 1;
                                    }

                                    else {
                                        if (x[87] <= 11.644999980926514) {
                                            votes[0] += 1;
                                        }

                                        else {
                                            votes[2] += 1;
                                        }
                                    }
                                }

                                else {
                                    if (x[96] <= 3.0199999809265137) {
                                        votes[0] += 1;
                                    }

                                    else {
                                        votes[2] += 1;
                                    }
                                }
                            }
                        }

                        else {
                            if (x[78] <= -0.07000000029802322) {
                                if (x[119] <= -1.9649999737739563) {
                                    if (x[6] <= -6.609999895095825) {
                                        votes[0] += 1;
                                    }

                                    else {
                                        votes[2] += 1;
                                    }
                                }

                                else {
                                    votes[1] += 1;
                                }
                            }

                            else {
                                if (x[82] <= -1.1449999660253525) {
                                    if (x[16] <= 0.4399999976158142) {
                                        votes[2] += 1;
                                    }

                                    else {
                                        if (x[87] <= 6.520000100135803) {
                                            votes[1] += 1;
                                        }

                                        else {
                                            votes[0] += 1;
                                        }
                                    }
                                }

                                else {
                                    votes[0] += 1;
                                }
                            }
                        }

                        // tree #18
                        if (x[90] <= 5.505000114440918) {
                            if (x[119] <= -4.069999933242798) {
                                if (x[15] <= 9.96500015258789) {
                                    if (x[93] <= 2.9250000715255737) {
                                        if (x[123] <= -7.68999981880188) {
                                            votes[0] += 1;
                                        }

                                        else {
                                            votes[2] += 1;
                                        }
                                    }

                                    else {
                                        votes[1] += 1;
                                    }
                                }

                                else {
                                    votes[0] += 1;
                                }
                            }

                            else {
                                if (x[92] <= -8.324999809265137) {
                                    votes[2] += 1;
                                }

                                else {
                                    if (x[111] <= 18.164999961853027) {
                                        votes[1] += 1;
                                    }

                                    else {
                                        votes[2] += 1;
                                    }
                                }
                            }
                        }

                        else {
                            if (x[115] <= -2.799999952316284) {
                                if (x[111] <= 5.329999923706055) {
                                    votes[0] += 1;
                                }

                                else {
                                    votes[2] += 1;
                                }
                            }

                            else {
                                if (x[21] <= 13.025000095367432) {
                                    votes[0] += 1;
                                }

                                else {
                                    if (x[48] <= 10.484999656677246) {
                                        votes[2] += 1;
                                    }

                                    else {
                                        votes[0] += 1;
                                    }
                                }
                            }
                        }

                        // tree #19
                        if (x[27] <= 13.585000038146973) {
                            if (x[67] <= -0.9199999868869781) {
                                if (x[87] <= 5.340000152587891) {
                                    if (x[119] <= -7.159999847412109) {
                                        if (x[70] <= -4.6000001430511475) {
                                            votes[2] += 1;
                                        }

                                        else {
                                            votes[0] += 1;
                                        }
                                    }

                                    else {
                                        if (x[39] <= 13.809999942779541) {
                                            votes[1] += 1;
                                        }

                                        else {
                                            votes[2] += 1;
                                        }
                                    }
                                }

                                else {
                                    if (x[119] <= -0.3100000023841858) {
                                        if (x[82] <= -0.7950000166893005) {
                                            votes[2] += 1;
                                        }

                                        else {
                                            votes[0] += 1;
                                        }
                                    }

                                    else {
                                        votes[0] += 1;
                                    }
                                }
                            }

                            else {
                                if (x[13] <= -12.22000002861023) {
                                    votes[1] += 1;
                                }

                                else {
                                    if (x[120] <= 13.224999904632568) {
                                        if (x[47] <= -16.790000438690186) {
                                            votes[2] += 1;
                                        }

                                        else {
                                            votes[0] += 1;
                                        }
                                    }

                                    else {
                                        votes[2] += 1;
                                    }
                                }
                            }
                        }

                        else {
                            if (x[93] <= 7.31499981880188) {
                                votes[1] += 1;
                            }

                            else {
                                if (x[7] <= -0.9050000011920929) {
                                    votes[2] += 1;
                                }

                                else {
                                    votes[0] += 1;
                                }
                            }
                        }

                        // tree #20
                        if (x[30] <= 13.399999618530273) {
                            if (x[13] <= -0.9700000286102295) {
                                if (x[43] <= -2.009999990463257) {
                                    if (x[75] <= 1.0900000035762787) {
                                        if (x[91] <= -3.549999952316284) {
                                            votes[1] += 1;
                                        }

                                        else {
                                            votes[2] += 1;
                                        }
                                    }

                                    else {
                                        votes[2] += 1;
                                    }
                                }

                                else {
                                    if (x[91] <= -3.600000023841858) {
                                        votes[2] += 1;
                                    }

                                    else {
                                        if (x[22] <= -13.809999704360962) {
                                            votes[1] += 1;
                                        }

                                        else {
                                            votes[0] += 1;
                                        }
                                    }
                                }
                            }

                            else {
                                if (x[106] <= -2.909999966621399) {
                                    if (x[83] <= -4.689999938011169) {
                                        votes[2] += 1;
                                    }

                                    else {
                                        votes[0] += 1;
                                    }
                                }

                                else {
                                    votes[0] += 1;
                                }
                            }
                        }

                        else {
                            if (x[131] <= -6.300000190734863) {
                                if (x[106] <= -1.6900000525638461) {
                                    votes[2] += 1;
                                }

                                else {
                                    votes[0] += 1;
                                }
                            }

                            else {
                                if (x[134] <= -4.355000019073486) {
                                    if (x[108] <= 9.045000076293945) {
                                        votes[1] += 1;
                                    }

                                    else {
                                        votes[2] += 1;
                                    }
                                }

                                else {
                                    votes[1] += 1;
                                }
                            }
                        }

                        // tree #21
                        if (x[49] <= -2.165000081062317) {
                            if (x[29] <= -7.205000162124634) {
                                if (x[94] <= -7.06000018119812) {
                                    votes[1] += 1;
                                }

                                else {
                                    if (x[9] <= -3.7100000381469727) {
                                        votes[0] += 1;
                                    }

                                    else {
                                        votes[2] += 1;
                                    }
                                }
                            }

                            else {
                                votes[1] += 1;
                            }
                        }

                        else {
                            if (x[118] <= -2.9499999284744263) {
                                if (x[39] <= 17.914999961853027) {
                                    if (x[72] <= 8.680000305175781) {
                                        votes[2] += 1;
                                    }

                                    else {
                                        votes[0] += 1;
                                    }
                                }

                                else {
                                    votes[1] += 1;
                                }
                            }

                            else {
                                if (x[79] <= -1.9399999976158142) {
                                    if (x[71] <= -4.299999952316284) {
                                        votes[2] += 1;
                                    }

                                    else {
                                        if (x[134] <= 7.834999904036522) {
                                            votes[1] += 1;
                                        }

                                        else {
                                            votes[0] += 1;
                                        }
                                    }
                                }

                                else {
                                    if (x[111] <= 16.610000610351562) {
                                        if (x[50] <= -17.80500030517578) {
                                            votes[2] += 1;
                                        }

                                        else {
                                            if (x[25] <= 10.15999984741211) {
                                                votes[0] += 1;
                                            }

                                            else {
                                                votes[1] += 1;
                                            }
                                        }
                                    }

                                    else {
                                        votes[2] += 1;
                                    }
                                }
                            }
                        }

                        // tree #22
                        if (x[43] <= -1.9649999737739563) {
                            if (x[119] <= -4.194999933242798) {
                                if (x[91] <= -8.78000020980835) {
                                    votes[1] += 1;
                                }

                                else {
                                    if (x[38] <= 22.21499954164028) {
                                        if (x[67] <= -8.230000019073486) {
                                            if (x[51] <= 2.8600000143051147) {
                                                votes[2] += 1;
                                            }

                                            else {
                                                votes[1] += 1;
                                            }
                                        }

                                        else {
                                            votes[2] += 1;
                                        }
                                    }

                                    else {
                                        votes[0] += 1;
                                    }
                                }
                            }

                            else {
                                if (x[89] <= -3.9200000762939453) {
                                    if (x[44] <= -21.045000076293945) {
                                        votes[1] += 1;
                                    }

                                    else {
                                        votes[2] += 1;
                                    }
                                }

                                else {
                                    votes[1] += 1;
                                }
                            }
                        }

                        else {
                            if (x[11] <= 34.46500015258789) {
                                if (x[97] <= -2.4200000762939453) {
                                    if (x[134] <= -2.4450000524520874) {
                                        votes[2] += 1;
                                    }

                                    else {
                                        votes[1] += 1;
                                    }
                                }

                                else {
                                    if (x[94] <= -2.159999966621399) {
                                        if (x[3] <= 1.1699998378753662) {
                                            votes[2] += 1;
                                        }

                                        else {
                                            votes[0] += 1;
                                        }
                                    }

                                    else {
                                        if (x[26] <= 37.64500045776367) {
                                            votes[0] += 1;
                                        }

                                        else {
                                            votes[1] += 1;
                                        }
                                    }
                                }
                            }

                            else {
                                votes[1] += 1;
                            }
                        }

                        // tree #23
                        if (x[90] <= 6.0899999141693115) {
                            if (x[126] <= -4.585000038146973) {
                                if (x[25] <= -3.4700000286102295) {
                                    votes[2] += 1;
                                }

                                else {
                                    votes[0] += 1;
                                }
                            }

                            else {
                                if (x[114] <= 10.474999904632568) {
                                    if (x[92] <= 3.040000081062317) {
                                        votes[1] += 1;
                                    }

                                    else {
                                        votes[2] += 1;
                                    }
                                }

                                else {
                                    votes[2] += 1;
                                }
                            }
                        }

                        else {
                            if (x[115] <= -2.799999952316284) {
                                if (x[40] <= -1.2900000214576721) {
                                    votes[2] += 1;
                                }

                                else {
                                    votes[0] += 1;
                                }
                            }

                            else {
                                if (x[130] <= -4.519999861717224) {
                                    votes[2] += 1;
                                }

                                else {
                                    if (x[70] <= -2.534999966621399) {
                                        votes[2] += 1;
                                    }

                                    else {
                                        votes[0] += 1;
                                    }
                                }
                            }
                        }

                        // tree #24
                        if (x[24] <= 15.089999675750732) {
                            if (x[88] <= -1.1800000071525574) {
                                if (x[62] <= -1.6899999976158142) {
                                    if (x[10] <= -1.2899999916553497) {
                                        votes[2] += 1;
                                    }

                                    else {
                                        if (x[7] <= -1.6950000524520874) {
                                            votes[2] += 1;
                                        }

                                        else {
                                            votes[0] += 1;
                                        }
                                    }
                                }

                                else {
                                    if (x[129] <= 6.2499998807907104) {
                                        votes[1] += 1;
                                    }

                                    else {
                                        votes[2] += 1;
                                    }
                                }
                            }

                            else {
                                if (x[121] <= -3.5899999141693115) {
                                    if (x[107] <= -4.129999876022339) {
                                        votes[2] += 1;
                                    }

                                    else {
                                        votes[1] += 1;
                                    }
                                }

                                else {
                                    if (x[95] <= -1.4449999928474426) {
                                        if (x[106] <= -3.040000081062317) {
                                            votes[2] += 1;
                                        }

                                        else {
                                            votes[0] += 1;
                                        }
                                    }

                                    else {
                                        if (x[66] <= 5.365000009536743) {
                                            votes[1] += 1;
                                        }

                                        else {
                                            votes[0] += 1;
                                        }
                                    }
                                }
                            }
                        }

                        else {
                            if (x[114] <= 6.375) {
                                votes[1] += 1;
                            }

                            else {
                                votes[0] += 1;
                            }
                        }

                        // tree #25
                        if (x[124] <= -0.6200000047683716) {
                            if (x[129] <= 5.009999990463257) {
                                if (x[116] <= -3.1050000190734863) {
                                    if (x[76] <= -3.2300000190734863) {
                                        votes[2] += 1;
                                    }

                                    else {
                                        votes[0] += 1;
                                    }
                                }

                                else {
                                    if (x[102] <= 6.069999933242798) {
                                        votes[1] += 1;
                                    }

                                    else {
                                        if (x[129] <= 3.319999933242798) {
                                            votes[2] += 1;
                                        }

                                        else {
                                            votes[0] += 1;
                                        }
                                    }
                                }
                            }

                            else {
                                if (x[123] <= 36.79999923706055) {
                                    if (x[72] <= 11.339999675750732) {
                                        votes[2] += 1;
                                    }

                                    else {
                                        if (x[87] <= 8.459999799728394) {
                                            votes[2] += 1;
                                        }

                                        else {
                                            votes[0] += 1;
                                        }
                                    }
                                }

                                else {
                                    votes[0] += 1;
                                }
                            }
                        }

                        else {
                            if (x[94] <= -4.064999938011169) {
                                votes[2] += 1;
                            }

                            else {
                                if (x[67] <= 0.15999999549239874) {
                                    if (x[90] <= 3.8950001001358032) {
                                        if (x[54] <= 5.159999966621399) {
                                            votes[1] += 1;
                                        }

                                        else {
                                            votes[2] += 1;
                                        }
                                    }

                                    else {
                                        votes[0] += 1;
                                    }
                                }

                                else {
                                    votes[0] += 1;
                                }
                            }
                        }

                        // tree #26
                        if (x[99] <= 5.539999961853027) {
                            if (x[120] <= -4.110000014305115) {
                                if (x[64] <= -2.3600000739097595) {
                                    votes[2] += 1;
                                }

                                else {
                                    votes[0] += 1;
                                }
                            }

                            else {
                                if (x[132] <= 7.5350000858306885) {
                                    if (x[98] <= -5.580000162124634) {
                                        if (x[38] <= -21.0049991607666) {
                                            votes[1] += 1;
                                        }

                                        else {
                                            votes[2] += 1;
                                        }
                                    }

                                    else {
                                        if (x[88] <= 4.055000066757202) {
                                            votes[1] += 1;
                                        }

                                        else {
                                            votes[0] += 1;
                                        }
                                    }
                                }

                                else {
                                    if (x[133] <= -0.8100000321865082) {
                                        votes[2] += 1;
                                    }

                                    else {
                                        votes[0] += 1;
                                    }
                                }
                            }
                        }

                        else {
                            if (x[103] <= -2.53000009059906) {
                                if (x[9] <= 43.96500015258789) {
                                    votes[2] += 1;
                                }

                                else {
                                    votes[0] += 1;
                                }
                            }

                            else {
                                if (x[106] <= -5.225000023841858) {
                                    votes[2] += 1;
                                }

                                else {
                                    votes[0] += 1;
                                }
                            }
                        }

                        // tree #27
                        if (x[40] <= -1.3050000071525574) {
                            if (x[80] <= -2.6850000619888306) {
                                if (x[4] <= 1.8049999475479126) {
                                    if (x[45] <= 22.160000324249268) {
                                        if (x[117] <= -7.865000009536743) {
                                            votes[0] += 1;
                                        }

                                        else {
                                            if (x[112] <= -7.519999980926514) {
                                                votes[1] += 1;
                                            }

                                            else {
                                                if (x[51] <= 11.224999904632568) {
                                                    votes[2] += 1;
                                                }

                                                else {
                                                    if (x[37] <= -3.200000047683716) {
                                                        votes[2] += 1;
                                                    }

                                                    else {
                                                        votes[0] += 1;
                                                    }
                                                }
                                            }
                                        }
                                    }

                                    else {
                                        votes[1] += 1;
                                    }
                                }

                                else {
                                    if (x[111] <= 5.190000057220459) {
                                        votes[1] += 1;
                                    }

                                    else {
                                        votes[0] += 1;
                                    }
                                }
                            }

                            else {
                                if (x[87] <= 5.150000095367432) {
                                    votes[1] += 1;
                                }

                                else {
                                    votes[2] += 1;
                                }
                            }
                        }

                        else {
                            if (x[30] <= 13.21999979019165) {
                                if (x[104] <= -12.545000076293945) {
                                    votes[2] += 1;
                                }

                                else {
                                    if (x[16] <= -18.799999237060547) {
                                        votes[1] += 1;
                                    }

                                    else {
                                        if (x[43] <= -2.1950000524520874) {
                                            votes[2] += 1;
                                        }

                                        else {
                                            if (x[73] <= 5.140000104904175) {
                                                votes[0] += 1;
                                            }

                                            else {
                                                if (x[15] <= -6.490000247955322) {
                                                    votes[0] += 1;
                                                }

                                                else {
                                                    votes[2] += 1;
                                                }
                                            }
                                        }
                                    }
                                }
                            }

                            else {
                                if (x[33] <= 57.165000915527344) {
                                    votes[1] += 1;
                                }

                                else {
                                    votes[0] += 1;
                                }
                            }
                        }

                        // tree #28
                        if (x[90] <= 5.914999961853027) {
                            if (x[105] <= -2.8049999475479126) {
                                if (x[23] <= -12.574999809265137) {
                                    votes[2] += 1;
                                }

                                else {
                                    votes[0] += 1;
                                }
                            }

                            else {
                                if (x[96] <= 7.434999942779541) {
                                    if (x[109] <= -8.565000057220459) {
                                        votes[2] += 1;
                                    }

                                    else {
                                        if (x[75] <= -5.669999837875366) {
                                            votes[2] += 1;
                                        }

                                        else {
                                            if (x[92] <= 3.315000057220459) {
                                                votes[1] += 1;
                                            }

                                            else {
                                                votes[0] += 1;
                                            }
                                        }
                                    }
                                }

                                else {
                                    votes[2] += 1;
                                }
                            }
                        }

                        else {
                            if (x[124] <= -0.7100000083446503) {
                                if (x[45] <= 9.510000228881836) {
                                    votes[2] += 1;
                                }

                                else {
                                    votes[0] += 1;
                                }
                            }

                            else {
                                if (x[59] <= -14.099999904632568) {
                                    votes[2] += 1;
                                }

                                else {
                                    votes[0] += 1;
                                }
                            }
                        }

                        // tree #29
                        if (x[90] <= 6.244999885559082) {
                            if (x[131] <= -2.384999990463257) {
                                if (x[64] <= 0.4950000047683716) {
                                    if (x[49] <= -19.355000495910645) {
                                        votes[1] += 1;
                                    }

                                    else {
                                        if (x[26] <= -10.255000114440918) {
                                            votes[2] += 1;
                                        }

                                        else {
                                            if (x[131] <= -5.700000047683716) {
                                                if (x[27] <= -3.1449999511241913) {
                                                    votes[0] += 1;
                                                }

                                                else {
                                                    votes[2] += 1;
                                                }
                                            }

                                            else {
                                                votes[1] += 1;
                                            }
                                        }
                                    }
                                }

                                else {
                                    votes[0] += 1;
                                }
                            }

                            else {
                                if (x[114] <= -3.1549999713897705) {
                                    votes[0] += 1;
                                }

                                else {
                                    if (x[12] <= -4.359999895095825) {
                                        votes[2] += 1;
                                    }

                                    else {
                                        if (x[127] <= 4.729999899864197) {
                                            votes[1] += 1;
                                        }

                                        else {
                                            votes[0] += 1;
                                        }
                                    }
                                }
                            }
                        }

                        else {
                            if (x[70] <= 0.3100000023841858) {
                                if (x[60] <= 11.049999713897705) {
                                    if (x[112] <= 1.1950000524520874) {
                                        votes[2] += 1;
                                    }

                                    else {
                                        votes[0] += 1;
                                    }
                                }

                                else {
                                    if (x[122] <= -2.505000114440918) {
                                        votes[0] += 1;
                                    }

                                    else {
                                        votes[2] += 1;
                                    }
                                }
                            }

                            else {
                                if (x[115] <= -3.924999952316284) {
                                    votes[2] += 1;
                                }

                                else {
                                    votes[0] += 1;
                                }
                            }
                        }

                        // tree #30
                        if (x[69] <= 5.759999990463257) {
                            if (x[104] <= -7.775000095367432) {
                                if (x[81] <= -6.235000133514404) {
                                    votes[0] += 1;
                                }

                                else {
                                    votes[2] += 1;
                                }
                            }

                            else {
                                if (x[36] <= -4.815000057220459) {
                                    if (x[20] <= -6.319999933242798) {
                                        votes[0] += 1;
                                    }

                                    else {
                                        votes[2] += 1;
                                    }
                                }

                                else {
                                    if (x[102] <= -4.630000114440918) {
                                        votes[2] += 1;
                                    }

                                    else {
                                        votes[1] += 1;
                                    }
                                }
                            }
                        }

                        else {
                            if (x[44] <= -9.134999752044678) {
                                if (x[34] <= -0.09999999403953552) {
                                    if (x[4] <= -2.100000023841858) {
                                        votes[2] += 1;
                                    }

                                    else {
                                        if (x[52] <= -2.7549999952316284) {
                                            votes[2] += 1;
                                        }

                                        else {
                                            votes[0] += 1;
                                        }
                                    }
                                }

                                else {
                                    if (x[103] <= 0.06500005722045898) {
                                        votes[1] += 1;
                                    }

                                    else {
                                        votes[0] += 1;
                                    }
                                }
                            }

                            else {
                                if (x[97] <= -2.4200000762939453) {
                                    if (x[108] <= 8.535000085830688) {
                                        votes[1] += 1;
                                    }

                                    else {
                                        votes[2] += 1;
                                    }
                                }

                                else {
                                    votes[0] += 1;
                                }
                            }
                        }

                        // tree #31
                        if (x[64] <= -0.8599999845027924) {
                            if (x[20] <= 6.765000104904175) {
                                if (x[7] <= -0.034999996423721313) {
                                    if (x[12] <= 5.950000047683716) {
                                        if (x[106] <= -1.465000033378601) {
                                            if (x[5] <= -7.115000009536743) {
                                                votes[1] += 1;
                                            }

                                            else {
                                                if (x[80] <= -2.93999994546175) {
                                                    votes[2] += 1;
                                                }

                                                else {
                                                    votes[1] += 1;
                                                }
                                            }
                                        }

                                        else {
                                            votes[0] += 1;
                                        }
                                    }

                                    else {
                                        if (x[123] <= 10.815000057220459) {
                                            votes[2] += 1;
                                        }

                                        else {
                                            votes[0] += 1;
                                        }
                                    }
                                }

                                else {
                                    if (x[74] <= 32.00500011444092) {
                                        votes[1] += 1;
                                    }

                                    else {
                                        votes[0] += 1;
                                    }
                                }
                            }

                            else {
                                votes[1] += 1;
                            }
                        }

                        else {
                            if (x[46] <= -0.550000011920929) {
                                if (x[126] <= 5.765000104904175) {
                                    if (x[99] <= -2.534999966621399) {
                                        votes[2] += 1;
                                    }

                                    else {
                                        votes[1] += 1;
                                    }
                                }

                                else {
                                    if (x[115] <= 0.5349999666213989) {
                                        votes[2] += 1;
                                    }

                                    else {
                                        votes[0] += 1;
                                    }
                                }
